the -0.082752 0.67204 -0.14987 -0.064983 0.056491 0.40228 0.0027747 -0.3311 -0.30691 2.0817 0.031819 0.013643 0.30265 0.0071297 -0.5819 -0.2774 -0.062254 1.1451 -0.24232 0.1235 -0.12243 0.33152 -0.006162 -0.30541 -0.13057 -0.054601 0.037083 -0.070552 0.5893 -0.30385 0.2898 -0.14653 -0.27052 0.37161 0.32031 -0.29125 0.0052483 -0.13212 -0.052736 0.087349 -0.26668 -0.16897 0.015162 -0.0083746 -0.14871 0.23413 -0.20719 -0.091386 0.40075 -0.17223 0.18145 0.37586 -0.28682 0.37289 -0.16185 0.18008 0.3032 -0.13216 0.18352 0.095759 0.094916 0.008289 0.11761 0.34046 0.03677 -0.29077 0.058303 -0.027814 0.082941 0.1862 -0.031494 0.27985 -0.074412 -0.13762 -0.21866 0.18138 0.040855 -0.113 0.24107 0.3657 -0.27525 -0.05684 0.34872 0.011884 0.14517 -0.71395 0.48497 0.14807 0.62287 0.20599 0.58379 -0.13438 0.40207 0.18311 0.28021 -0.42349 -0.25626 0.17715 -0.54095 0.16596 -0.036058 0.08499 -0.64989 0.075549 -0.28831 0.40626 -0.2802 0.094062 0.32406 0.28437 -0.26341 0.11553 0.071918 -0.47215 -0.18366 -0.34709 0.29964 -0.66514 0.002516 -0.42333 0.27512 0.36012 0.16311 0.23964 -0.05923 0.3261 0.20559 0.038677 -0.045816 0.089764 0.43151 -0.15954 0.08532 -0.26572 -0.15001 0.084286 -0.16714 -0.43004 0.060807 0.13121 -0.24112 0.66554 0.4453 -0.18019 -0.13919 0.56252 0.21457 -0.46443 -0.012211 0.029988 -0.051094 -0.20135 0.80788 0.47377 -0.057647 0.46216 0.16084 -0.20954 -0.05452 0.15572 -0.13712 0.12972 -0.011936 -0.003378 -0.13595 -0.080711 0.20065 0.054056 0.046816 0.059539 0.046265 0.17754 -0.31094 0.28119 -0.24355 0.085252 -0.21011 -0.19472 0.0027297 -0.46341 0.14789 -0.31517 -0.065939 0.036106 0.42903 -0.33759 0.16432 0.32568 -0.050392 -0.054297 0.24074 0.41923 0.13012 -0.17167 -0.37808 -0.23089 -0.019477 -0.29291 -0.30824 0.30297 -0.22659 0.081574 -0.18516 -0.21408 0.40616 -0.28974 0.074174 -0.17795 0.28595 -0.039626 -0.2339 -0.36054 -0.067503 -0.091065 0.23438 -0.0041331 0.003232 0.0072134 0.008697 0.21614 0.049904 0.35582 0.13748 0.073361 0.14166 0.2412 -0.013322 0.15613 0.083381 0.088146 -0.019357 0.43795 0.083961 0.45309 -0.50489 -0.10865 -0.2527 -0.18251 0.20441 0.13319 0.1294 0.050594 -0.15612 -0.39543 0.12538 0.24881 -0.1927 -0.31847 -0.12719 0.4341 0.31177 -0.0040946 -0.2094 -0.079961 0.1161 -0.050794 0.015266 -0.2803 -0.12486 0.23587 0.2339 -0.14023 0.028462 0.56923 -0.1649 -0.036429 0.010051 -0.17107 -0.042608 0.044965 -0.4393 -0.26137 0.30088 -0.060772 -0.45312 -0.19076 -0.20288 0.27694 -0.060888 0.11944 0.62206 -0.19343 0.47849 -0.30113 0.059389 0.074901 0.061068 -0.4662 0.40054 -0.19099 -0.14331 0.018267 -0.18643 0.20709 -0.35598 0.05338 -0.050821 -0.1918 -0.37846 -0.06589
its 0.012001 0.20751 -0.12578 -0.59325 0.12525 0.15975 0.13748 -0.33157 -0.13694 1.7893 -0.47094 0.70434 0.26673 -0.089961 -0.18168 0.067226 0.053347 1.5595 -0.2541 0.038413 -0.01409 0.056774 0.023434 0.024042 0.31703 0.19025 -0.37505 0.035603 0.1181 0.012032 -0.037566 -0.5046 -0.049261 0.092351 0.11031 -0.073062 0.33994 0.28239 0.13413 0.070128 -0.022099 -0.28103 0.49607 -0.48693 -0.090964 -0.1538 -0.38011 -0.014228 -0.19392 -0.11068 -0.014088 -0.17906 0.24509 -0.16878 -0.15351 -0.13808 0.02151 0.13699 0.0068061 -0.14915 -0.38169 0.12727 0.44007 0.32678 -0.46117 0.068687 0.34747 0.18827 -0.31837 0.4447 -0.2095 -0.26987 0.48945 0.15388 0.05295 -0.049831 0.11207 0.14881 -0.37003 0.30777 -0.33865 0.045149 -0.18987 0.26634 -0.26401 -0.47556 0.68381 -0.30653 0.24606 0.31611 -0.071098 0.030417 0.088119 0.045025 0.20125 -0.21618 -0.36371 -0.25948 -0.42398 -0.14305 -0.10208 0.21498 -0.21924 -0.17935 0.21546 0.13801 0.24504 -0.2559 0.054815 0.21307 0.2564 -0.25673 0.17961 -0.47638 -0.25181 -0.0091498 -0.054362 -0.21007 0.12597 -0.40795 -0.021164 0.20585 0.18925 -0.0051896 -0.51394 0.28862 -0.077748 -0.27676 0.46567 -0.14225 -0.17879 -0.4357 -0.32481 0.15034 -0.058367 0.49652 0.20472 0.019866 0.13326 0.12823 -1.0177 0.29007 0.28995 0.029994 -0.10763 0.28665 -0.24387 0.22905 -0.26249 -0.069269 -0.17889 0.21936 0.15146 0.04567 -0.050497 0.071482 -0.1027 -0.080705 0.30296 0.031302 0.26613 -0.0060951 0.10313 -0.39987 -0.043945 -0.057625 0.08702 -0.098152 0.22835 -0.005211 0.038075 0.01591 -0.20622 0.021853 0.0040426 -0.043063 -0.002294 -0.26097 -0.25802 -0.28158 -0.23118 -0.010404 -0.30102 -0.4042 0.014653 -0.10445 0.30377 -0.20957 0.3119 0.068272 0.1008 0.010423 0.54011 0.29865 0.12653 0.013761 0.21738 -0.39521 0.066633 0.50327 0.14913 -0.11554 0.010042 0.095698 0.16607 -0.18808 0.055019 0.026715 -0.3164 -0.046583 -0.051591 0.023475 -0.11007 0.085642 0.28394 0.040497 0.071986 0.14157 -0.021199 0.44718 0.20088 -0.12964 -0.067183 0.47614 0.13394 -0.17287 -0.37324 -0.17285 0.02683 -0.1316 0.09116 -0.46487 0.1274 -0.090159 -0.10552 0.068006 -0.13381 0.17056 0.089509 -0.23133 -0.27572 0.061534 -0.051646 0.28377 0.25286 -0.24139 -0.19905 0.12049 -0.1011 0.27392 0.27843 0.26449 -0.18292 -0.048961 0.19198 0.17192 0.33659 -0.20184 -0.34305 -0.24553 -0.15399 0.3945 0.22839 -0.25753 -0.25675 -0.37332 -0.23884 -0.048816 0.78323 0.18851 -0.26477 0.096566 0.062658 -0.30668 -0.43334 0.10006 0.21136 0.039459 -0.11077 0.24421 0.60942 -0.46646 0.086385 -0.39702 -0.23363 0.021307 -0.10778 -0.2281 0.50803 0.11567 0.16165 -0.066737 -0.29556 0.022612 -0.28135 0.0635 0.14019 0.13871 -0.36049 -0.035
are 0.27204 -0.06203 -0.1884 0.023225 -0.018158 0.0067192 -0.13877 0.17708 0.17709 2.5882 -0.35179 -0.17312 0.43285 -0.10708 0.15006 -0.19982 -0.19093 1.1871 -0.16207 -0.23538 0.003664 -0.19156 -0.085662 0.039199 -0.066449 -0.04209 -0.19122 0.011679 -0.37138 0.21886 0.0011423 0.4319 -0.14205 0.38059 0.30654 0.020167 -0.18316 -0.0065186 -0.0080549 -0.12063 0.027507 0.29839 -0.22896 -0.22882 0.14671 -0.076301 -0.1268 -0.0066651 -0.052795 0.14258 0.1561 0.05551 -0.16149 0.09629 -0.076533 -0.049971 -0.010195 -0.047641 -0.16679 -0.2394 0.0050141 -0.049175 0.013338 0.41923 -0.10104 0.015111 -0.077706 -0.13471 0.119 0.10802 0.21061 -0.051904 0.18527 0.17856 0.041293 -0.014385 -0.082567 -0.035483 -0.076173 -0.045367 0.089281 0.33672 -0.22099 -0.0067275 0.23983 -0.23147 -0.88592 0.091297 -0.012123 0.013233 -0.25799 -0.02972 0.016754 0.01369 0.32377 0.039546 0.042114 -0.088243 0.30318 0.087747 0.16346 -0.40485 -0.043845 -0.040697 0.20936 -0.77795 0.2997 0.2334 0.14891 -0.39037 -0.053086 0.062922 0.065663 -0.13906 0.094193 0.10344 -0.2797 0.28905 -0.32161 0.020687 0.063254 -0.23257 -0.4352 -0.017049 -0.32744 -0.047064 -0.075149 -0.18788 -0.015017 0.029342 -0.3527 -0.044278 -0.13507 -0.11644 -0.1043 0.1392 0.0039199 0.37603 0.067217 -0.37992 -1.1241 -0.057357 -0.16826 0.03941 0.2604 -0.023866 0.17963 0.13553 0.2139 0.052633 -0.25033 -0.11307 0.22234 0.066597 -0.11161 0.062438 -0.27972 0.19878 -0.36262 -1.0006e-05 -0.17262 0.29166 -0.15723 0.054295 0.06101 -0.39165 0.2766 0.057816 0.39709 0.025229 0.24672 -0.08905 0.15683 -0.2096 -0.22196 0.052394 -0.01136 0.050417 -0.14023 -0.042825 -0.031931 -0.21336 -0.20402 -0.23272 0.07449 0.088202 -0.11063 -0.33526 -0.014028 -0.29429 -0.086911 -0.1321 -0.43616 0.20513 0.0079362 0.48505 0.064237 0.14261 -0.43711 0.12783 -0.13111 0.24673 -0.27496 0.15896 0.43314 0.090286 0.24662 0.066463 -0.20099 0.1101 0.03644 0.17359 -0.15689 -0.086328 -0.17316 0.36975 -0.40317 -0.064814 -0.034166 -0.013773 0.062854 -0.17183 -0.12366 -0.034663 -0.22793 -0.23172 0.239 0.27473 0.15332 0.10661 -0.060982 -0.024805 -0.13478 0.17932 -0.37374 -0.02893 -0.11142 -0.08389 -0.055932 0.068039 -0.10783 0.1465 0.094617 -0.084554 0.067429 -0.3291 0.034082 -0.16747 -0.25997 -0.22917 0.020159 -0.02758 0.16136 -0.18538 0.037665 0.57603 0.20684 0.27941 0.16477 -0.018769 0.12062 0.069648 0.059022 -0.23154 0.24095 -0.3471 0.04854 -0.056502 0.41566 -0.43194 0.4823 -0.051759 -0.27285 -0.25893 0.16555 -0.1831 -0.06734 0.42457 0.010346 0.14237 0.25939 0.17123 -0.13821 -0.066846 0.015981 -0.30193 0.043579 -0.043102 0.35025 -0.19681 -0.4281 0.16899 0.22511 -0.28557 -0.1028 -0.018168 0.11407 0.13015 -0.18317 0.1323
and -0.18567 0.066008 -0.25209 -0.11725 0.26513 0.064908 0.12291 -0.093979 0.024321 2.4926 -0.017916 -0.071218 -0.24782 -0.26237 -0.2246 -0.21961 -0.12927 1.0867 -0.66072 -0.031617 -0.057328 0.056903 -0.27939 -0.39825 0.14251 -0.085146 -0.14779 0.055067 -0.0028687 -0.20917 -0.070735 0.22577 -0.15881 -0.10395 0.09711 -0.56251 -0.32929 -0.20853 0.0098711 0.049777 0.0014883 0.15884 0.042771 -0.0026956 -0.02462 -0.19213 -0.22556 0.10838 0.090086 -0.13291 0.32559 -0.17038 -0.1099 -0.23986 -0.024289 0.014656 -0.237 0.084828 -0.35982 -0.076746 0.048909 0.11431 -0.21013 0.24765 -0.017531 -0.14028 0.046191 0.22972 0.1175 0.12724 0.012992 0.4587 0.41085 0.039106 0.15713 -0.18376 0.26834 0.056662 0.16844 -0.053788 -0.091892 0.11193 -0.08681 -0.13324 0.15062 -0.31733 -0.22078 0.25038 0.34131 0.36419 -0.089514 -0.22193 0.24471 0.040091 0.47798 -0.029996 0.0019212 0.063511 -0.20417 -0.26478 0.20649 0.015573 -0.27722 -0.18861 -0.10289 -0.49773 0.14986 -0.010877 0.25085 -0.28117 0.18966 -0.065879 0.094753 -0.15338 -0.055071 -0.36747 0.24993 0.096527 0.23538 0.18405 0.052859 0.22967 0.12582 0.15536 -0.17275 0.33946 -0.10049 0.074948 -0.093575 -0.04049 -0.016922 -0.0058039 -0.18108 0.19537 0.45178 0.10965 0.2337 -0.09905 -0.078633 0.21678 -0.71231 -0.099759 0.33333 -0.1646 -0.091688 0.21056 0.023669 0.028922 0.1199 -0.12512 -0.026037 -0.062217 0.55816 0.0050273 -0.30888 0.038611 0.17568 -0.11163 -0.10815 -0.19444 0.29433 0.14519 -0.042878 0.18534 0.018891 -0.61883 0.13352 0.036007 0.33995 0.22109 -0.079328 0.071319 0.17678 0.16378 -0.23142 -0.1434 -0.098122 -0.019286 0.2356 -0.34013 -0.061007 -0.23208 -0.31152 0.10063 -0.15957 0.20183 -0.016345 -0.12303 0.022667 -0.20986 -0.20127 -0.087883 0.064731 0.10195 -0.1786 0.33056 0.21407 -0.32165 -0.17106 0.19407 -0.38618 -0.2148 -0.052254 0.023175 0.47389 0.18612 0.12711 0.20855 -0.10256 -0.12016 -0.40488 0.029695 -0.027419 -0.0085227 -0.11415 0.081134 -0.17228 0.19142 0.026514 0.043789 -0.12399 0.13354 0.10112 0.081682 -0.15085 0.0075806 -0.18971 0.24669 0.22491 0.35553 -0.3277 -0.21821 0.1402 0.28604 0.055226 -0.086544 0.02111 -0.19236 0.074245 0.076782 0.00081666 0.034097 -0.57719 0.10657 0.28134 -0.11964 -0.68281 -0.32893 -0.24442 -0.025847 0.0091273 0.2025 -0.050959 -0.11042 0.010962 0.076773 0.40048 -0.40739 -0.44773 0.31954 -0.036326 -0.012789 -0.17282 0.1476 0.2356 0.080642 -0.36528 -0.0083443 0.6239 -0.24379 0.019917 -0.28803 -0.010494 0.038412 -0.11718 -0.072462 0.16381 0.38488 -0.029783 0.23444 0.4532 0.14815 -0.027021 -0.073181 -0.1147 -0.0054545 0.47796 0.090912 0.094489 -0.36882 -0.59396 -0.097729 0.20072 0.17055 -0.0047356 -0.039709 0.32498 -0.023452 0.12302 0.3312
